{
    "name": "Medea",
    "creator": "Uber entertainment",
    "version": "1",
    "date": "2016/04/17",	
    "players": [
        6,
        10
    ],
    "planets": [
        {
            "name": "J-154",
            "mass": 35000,
            "position_x": 22000,
            "position_y": -23800,
            "velocity_x": 91.20812225341797,
            "velocity_y": 84.31004333496094,
            "required_thrust_to_move": 0,
            "starting_planet": true,
            "respawn": false,
            "start_destroyed": false,
            "min_spawn_delay": 0,
            "max_spawn_delay": 0,
            "planet": {
                "seed": 1878440192,
                "radius": 700,
                "heightRange": 0,
                "waterHeight": 0,
                "waterDepth": 50,
                "temperature": 50,
                "metalDensity": 50,
                "metalClusters": 50,
                "metalSpotLimit": -1,
                "biomeScale": 50,
                "biome": "metal",
                "symmetryType": "none",
                "symmetricalMetal": false,
                "symmetricalStarts": false,
                "numArmies": 2,
                "landingZonesPerArmy": 0,
                "landingZoneSize": 0
            },
            "source": {
                "metal_spots": [
                    [
                        -67.96965026855469,
                        -429.446044921875,
                        548.4330444335938
                    ],
                    [
                        12.356857299804688,
                        -433.01361083984375,
                        549.7428588867188
                    ],
                    [
                        -105.44249725341797,
                        -472.8790283203125,
                        505.11834716796875
                    ],
                    [
                        -40.90398406982422,
                        -475.96295166015625,
                        511.48419189453125
                    ],
                    [
                        14.237762451171875,
                        -481.07415771484375,
                        508.18756103515625
                    ],
                    [
                        -37.55305480957031,
                        -473.528076171875,
                        -513.959716796875
                    ],
                    [
                        57.56642150878906,
                        -466.00213623046875,
                        -519
                    ],
                    [
                        -81.22103118896484,
                        -406.97802734375,
                        -563.645751953125
                    ],
                    [
                        -7.453460693359375,
                        -405.6658935546875,
                        -570.2764892578125
                    ],
                    [
                        82.65242004394531,
                        -392.15594482421875,
                        -573.7744750976562
                    ],
                    [
                        227.731201171875,
                        355.0909423828125,
                        558.4300537109375
                    ],
                    [
                        160.959716796875,
                        394.2188720703125,
                        555.4446411132812
                    ],
                    [
                        183.708740234375,
                        434.1702880859375,
                        517.3121948242188
                    ],
                    [
                        235.2763671875,
                        475.57061767578125,
                        456.40887451171875
                    ],
                    [
                        245.61322021484375,
                        437.2183837890625,
                        -488.16229248046875
                    ],
                    [
                        183.2637939453125,
                        354.1480712890625,
                        -575.13671875
                    ],
                    [
                        185.1165771484375,
                        493.71490478515625,
                        -460.293212890625
                    ],
                    [
                        144.01644897460938,
                        437.44403076171875,
                        -527.0556640625
                    ],
                    [
                        118.9659423828125,
                        379.48065185546875,
                        -575.8792724609375
                    ],
                    [
                        0.615020751953125,
                        664.7329711914062,
                        0.1241302490234375
                    ],
                    [
                        2.06439208984375,
                        -664.7164306640625,
                        -1.656510591506958
                    ],
                    [
                        246.8880615234375,
                        415.10968017578125,
                        506.543212890625
                    ],
                    [
                        179.5543975830078,
                        650.811767578125,
                        184.5780029296875
                    ],
                    [
                        -192.89332580566406,
                        647.213134765625,
                        183.74969482421875
                    ],
                    [
                        -180.92349243164062,
                        645.9754638671875,
                        -199.22528076171875
                    ],
                    [
                        175.56658935546875,
                        656.0172119140625,
                        -169.27609252929688
                    ],
                    [
                        -166.75538635253906,
                        -659.671630859375,
                        163.7606658935547
                    ],
                    [
                        150.83877563476562,
                        -659.52197265625,
                        179.1019287109375
                    ],
                    [
                        108.2320556640625,
                        -682.15087890625,
                        -112.93960571289062
                    ],
                    [
                        -122.69038391113281,
                        -679.8260498046875,
                        -112.79112243652344
                    ],
                    [
                        677.1753540039062,
                        -3.11212158203125,
                        176.61172485351562
                    ],
                    [
                        666.6881713867188,
                        -40.871307373046875,
                        209.04632568359375
                    ],
                    [
                        668.3087158203125,
                        32.118263244628906,
                        205.46255493164062
                    ],
                    [
                        676.8914794921875,
                        -3.37750244140625,
                        -177.76950073242188
                    ],
                    [
                        658.740966796875,
                        -46.09172058105469,
                        -231.9026336669922
                    ],
                    [
                        658.8458862304688,
                        37.99665832519531,
                        -233.25294494628906
                    ],
                    [
                        -673.7017822265625,
                        -1.1546974182128906,
                        189.21238708496094
                    ],
                    [
                        -654.7517700195312,
                        45.39735412597656,
                        242.7412567138672
                    ],
                    [
                        -656.1436157226562,
                        -52.1343994140625,
                        237.66122436523438
                    ],
                    [
                        -674.7379150390625,
                        -5.660504341125488,
                        -185.60391235351562
                    ],
                    [
                        -650.7438354492188,
                        50.314205169677734,
                        -252.525390625
                    ],
                    [
                        -647.383544921875,
                        -59.743995666503906,
                        -259.2616882324219
                    ]
                ],
                "landing_zones": {
                    "list": [
                        [
                            -1.4319701194763184,
                            -457.6585693359375,
                            529.458740234375
                        ],
                        [
                            16.14776611328125,
                            -439.84912109375,
                            -544.1204833984375
                        ],
                        [
                            253.1341552734375,
                            402.14483642578125,
                            513.8513793945312
                        ],
                        [
                            229.44354248046875,
                            400.4432373046875,
                            -526.1263427734375
                        ]
                    ],
                    "rules": [
                        {
                            "min": 0,
                            "max": 10
                        },
                        {
                            "min": 0,
                            "max": 10
                        },
                        {
                            "min": 0,
                            "max": 10
                        },
                        {
                            "min": 0,
                            "max": 10
                        }
                    ]
                }
            },
            "metal_spots": [
                [
                    -67.96965026855469,
                    -429.446044921875,
                    548.4330444335938
                ],
                [
                    12.356857299804688,
                    -433.01361083984375,
                    549.7428588867188
                ],
                [
                    -105.44249725341797,
                    -472.8790283203125,
                    505.11834716796875
                ],
                [
                    -40.90398406982422,
                    -475.96295166015625,
                    511.48419189453125
                ],
                [
                    14.237762451171875,
                    -481.07415771484375,
                    508.18756103515625
                ],
                [
                    -37.55305480957031,
                    -473.528076171875,
                    -513.959716796875
                ],
                [
                    57.56642150878906,
                    -466.00213623046875,
                    -519
                ],
                [
                    -81.22103118896484,
                    -406.97802734375,
                    -563.645751953125
                ],
                [
                    -7.453460693359375,
                    -405.6658935546875,
                    -570.2764892578125
                ],
                [
                    82.65242004394531,
                    -392.15594482421875,
                    -573.7744750976562
                ],
                [
                    227.731201171875,
                    355.0909423828125,
                    558.4300537109375
                ],
                [
                    160.959716796875,
                    394.2188720703125,
                    555.4446411132812
                ],
                [
                    183.708740234375,
                    434.1702880859375,
                    517.3121948242188
                ],
                [
                    235.2763671875,
                    475.57061767578125,
                    456.40887451171875
                ],
                [
                    245.61322021484375,
                    437.2183837890625,
                    -488.16229248046875
                ],
                [
                    183.2637939453125,
                    354.1480712890625,
                    -575.13671875
                ],
                [
                    185.1165771484375,
                    493.71490478515625,
                    -460.293212890625
                ],
                [
                    144.01644897460938,
                    437.44403076171875,
                    -527.0556640625
                ],
                [
                    118.9659423828125,
                    379.48065185546875,
                    -575.8792724609375
                ],
                [
                    0.615020751953125,
                    664.7329711914062,
                    0.1241302490234375
                ],
                [
                    2.06439208984375,
                    -664.7164306640625,
                    -1.656510591506958
                ],
                [
                    246.8880615234375,
                    415.10968017578125,
                    506.543212890625
                ],
                [
                    179.5543975830078,
                    650.811767578125,
                    184.5780029296875
                ],
                [
                    -192.89332580566406,
                    647.213134765625,
                    183.74969482421875
                ],
                [
                    -180.92349243164062,
                    645.9754638671875,
                    -199.22528076171875
                ],
                [
                    175.56658935546875,
                    656.0172119140625,
                    -169.27609252929688
                ],
                [
                    -166.75538635253906,
                    -659.671630859375,
                    163.7606658935547
                ],
                [
                    150.83877563476562,
                    -659.52197265625,
                    179.1019287109375
                ],
                [
                    108.2320556640625,
                    -682.15087890625,
                    -112.93960571289062
                ],
                [
                    -122.69038391113281,
                    -679.8260498046875,
                    -112.79112243652344
                ],
                [
                    677.1753540039062,
                    -3.11212158203125,
                    176.61172485351562
                ],
                [
                    666.6881713867188,
                    -40.871307373046875,
                    209.04632568359375
                ],
                [
                    668.3087158203125,
                    32.118263244628906,
                    205.46255493164062
                ],
                [
                    676.8914794921875,
                    -3.37750244140625,
                    -177.76950073242188
                ],
                [
                    658.740966796875,
                    -46.09172058105469,
                    -231.9026336669922
                ],
                [
                    658.8458862304688,
                    37.99665832519531,
                    -233.25294494628906
                ],
                [
                    -673.7017822265625,
                    -1.1546974182128906,
                    189.21238708496094
                ],
                [
                    -654.7517700195312,
                    45.39735412597656,
                    242.7412567138672
                ],
                [
                    -656.1436157226562,
                    -52.1343994140625,
                    237.66122436523438
                ],
                [
                    -674.7379150390625,
                    -5.660504341125488,
                    -185.60391235351562
                ],
                [
                    -650.7438354492188,
                    50.314205169677734,
                    -252.525390625
                ],
                [
                    -647.383544921875,
                    -59.743995666503906,
                    -259.2616882324219
                ]
            ],
            "landing_zones": {
                "list": [
                    [
                        -1.4319701194763184,
                        -457.6585693359375,
                        529.458740234375
                    ],
                    [
                        16.14776611328125,
                        -439.84912109375,
                        -544.1204833984375
                    ],
                    [
                        253.1341552734375,
                        402.14483642578125,
                        513.8513793945312
                    ],
                    [
                        229.44354248046875,
                        400.4432373046875,
                        -526.1263427734375
                    ]
                ],
                "rules": [
                    {
                        "min": 0,
                        "max": 10
                    },
                    {
                        "min": 0,
                        "max": 10
                    },
                    {
                        "min": 0,
                        "max": 10
                    },
                    {
                        "min": 0,
                        "max": 10
                    }
                ]
            }
        },
        {
            "name": "Alamo",
            "mass": 5000,
            "position_x": 29400,
            "position_y": -33300.00390625,
            "velocity_x": -3.8948822021484375,
            "velocity_y": 10.229835510253906,
            "required_thrust_to_move": 2,
            "starting_planet": true,
            "respawn": false,
            "start_destroyed": false,
            "min_spawn_delay": 0,
            "max_spawn_delay": 0,
            "planet": {
                "seed": 1728590080,
                "radius": 450,
                "heightRange": 10,
                "waterHeight": 0,
                "waterDepth": 50,
                "temperature": 0,
                "metalDensity": 25,
                "metalClusters": 25,
                "metalSpotLimit": -1,
                "biomeScale": 50,
                "biome": "moon",
                "symmetryType": "terrain and CSG",
                "symmetricalMetal": true,
                "symmetricalStarts": true,
                "numArmies": 2,
                "landingZonesPerArmy": 0,
                "landingZoneSize": 0
            },
            "source": {
                "brushes": [
                    {
                        "weight": [
                            1,
                            1,
                            1,
                            1
                        ],
                        "spec": "/pa/terrain/moon/brushes/moon_crater_02.json",
                        "proj": "BP_Bend",
                        "transform": [
                            1.1708080768585205,
                            0.46217080950737,
                            -0.5776260495185852,
                            -186.67807006835938,
                            -0.737587571144104,
                            0.6463821530342102,
                            -0.9778547286987305,
                            -316.0245666503906,
                            -0.056730955839157104,
                            1.13429856300354,
                            0.7925864458084106,
                            256.1492919921875
                        ],
                        "op": "BO_Subtract",
                        "rotation": 5.6996541023254395,
                        "scale": [
                            1.3849350214004517,
                            1.3849350214004517,
                            1.3849350214004517
                        ],
                        "height": 447.58538818359375,
                        "position": [
                            -186.67807006835938,
                            -316.0245666503906,
                            256.1493225097656
                        ],
                        "weightHard": false,
                        "weightScale": [
                            1,
                            1,
                            1
                        ],
                        "mirrored": false,
                        "twinId": 5,
                        "flooded": false,
                        "pathable": true,
                        "mergeable": true,
                        "no_features": false,
                        "biomeColor": [
                            0,
                            0,
                            0,
                            1
                        ]
                    },
                    {
                        "weight": [
                            1,
                            1,
                            1,
                            1
                        ],
                        "spec": "/pa/terrain/moon/brushes/moon_crater_02.json",
                        "proj": "BP_Bend",
                        "transform": [
                            -0.10422803461551666,
                            -0.02697726897895336,
                            -0.8360476493835449,
                            -446.98553466796875,
                            0.8106994032859802,
                            -0.2108253687620163,
                            -0.09426510334014893,
                            -50.39801025390625,
                            -0.20608195662498474,
                            -0.8157155513763428,
                            0.05201294273138046,
                            27.808263778686523
                        ],
                        "op": "BO_Subtract",
                        "rotation": 1.9305343627929688,
                        "scale": [
                            0.842951238155365,
                            0.842951238155365,
                            0.842951238155365
                        ],
                        "height": 450.6764831542969,
                        "position": [
                            -446.9854736328125,
                            -50.398006439208984,
                            27.808277130126953
                        ],
                        "weightHard": false,
                        "weightScale": [
                            1,
                            1,
                            1
                        ],
                        "mirrored": false,
                        "twinId": 0,
                        "flooded": false,
                        "pathable": true,
                        "mergeable": true,
                        "no_features": false,
                        "biomeColor": [
                            0,
                            0,
                            0,
                            1
                        ]
                    },
                    {
                        "weight": [
                            1,
                            1,
                            1,
                            1
                        ],
                        "spec": "/pa/terrain/moon/brushes/moon_crater_02.json",
                        "proj": "BP_Bend",
                        "transform": [
                            -0.2818946838378906,
                            -1.1113673448562622,
                            -0.028607409447431564,
                            -11.264153480529785,
                            0.5480576753616333,
                            -0.11324361711740494,
                            -1.0011138916015625,
                            -394.1881408691406,
                            0.9672583341598511,
                            -0.25972849130630493,
                            0.5589032769203186,
                            220.06790161132812
                        ],
                        "op": "BO_Subtract",
                        "rotation": 1.804560661315918,
                        "scale": [
                            1.1469178199768066,
                            1.1469178199768066,
                            1.1469178199768066
                        ],
                        "height": 451.5982971191406,
                        "position": [
                            -11.264152526855469,
                            -394.1881103515625,
                            220.06793212890625
                        ],
                        "weightHard": false,
                        "weightScale": [
                            1,
                            1,
                            1
                        ],
                        "mirrored": false,
                        "twinId": 7,
                        "flooded": false,
                        "pathable": true,
                        "mergeable": true,
                        "no_features": false,
                        "biomeColor": [
                            0,
                            0,
                            0,
                            1
                        ]
                    },
                    {
                        "weight": [
                            1,
                            1,
                            1,
                            1
                        ],
                        "spec": "/pa/terrain/moon/brushes/moon_crater_02.json",
                        "proj": "BP_Bend",
                        "transform": [
                            0.2801940441131592,
                            0.8411269187927246,
                            0.19792398810386658,
                            97.8141860961914,
                            -0.5701560974121094,
                            0.33631137013435364,
                            -0.6220882534980774,
                            -307.43646240234375,
                            -0.6492998600006104,
                            0.06765559315681458,
                            0.6316720247268677,
                            312.17279052734375
                        ],
                        "op": "BO_Subtract",
                        "rotation": 5.124245643615723,
                        "scale": [
                            0.9083926677703857,
                            0.9083926677703857,
                            0.9083926677703857
                        ],
                        "height": 448.9283447265625,
                        "position": [
                            97.81419372558594,
                            -307.4365234375,
                            312.1727600097656
                        ],
                        "weightHard": false,
                        "weightScale": [
                            1,
                            1,
                            1
                        ],
                        "mirrored": false,
                        "twinId": 8,
                        "flooded": false,
                        "pathable": true,
                        "mergeable": true,
                        "no_features": false,
                        "biomeColor": [
                            0,
                            0,
                            0,
                            1
                        ]
                    },
                    {
                        "weight": [
                            1,
                            1,
                            1,
                            1
                        ],
                        "spec": "/pa/terrain/moon/brushes/moon_crater_02.json",
                        "proj": "BP_Bend",
                        "transform": [
                            -0.08549559861421585,
                            -1.1506695747375488,
                            0.31161773204803467,
                            114.51787567138672,
                            0.8591238856315613,
                            0.15712082386016846,
                            0.8158889412879944,
                            299.83489990234375,
                            -0.8264697194099426,
                            0.2823617458343506,
                            0.8158892393112183,
                            299.8349914550781
                        ],
                        "op": "BO_Subtract",
                        "rotation": 1.5351732969284058,
                        "scale": [
                            1.1951801776885986,
                            1.1951801776885986,
                            1.1951801776885986
                        ],
                        "height": 439.2224426269531,
                        "position": [
                            114.51791381835938,
                            299.8349914550781,
                            299.8349914550781
                        ],
                        "weightHard": false,
                        "weightScale": [
                            1,
                            1,
                            1
                        ],
                        "mirrored": false,
                        "twinId": 12,
                        "flooded": false,
                        "pathable": true,
                        "mergeable": true,
                        "no_features": false,
                        "biomeColor": [
                            0,
                            0,
                            0,
                            1
                        ]
                    },
                    {
                        "weight": [
                            1,
                            1,
                            1,
                            1
                        ],
                        "spec": "/pa/terrain/moon/brushes/moon_crater_02.json",
                        "proj": "BP_Bend",
                        "transform": [
                            0.3513960838317871,
                            0.3430554270744324,
                            -0.7301244139671326,
                            -371.07489013671875,
                            -0.8066120743751526,
                            0.161328986287117,
                            -0.312406450510025,
                            -158.77593994140625,
                            0.012066543102264404,
                            0.7940616011619568,
                            0.3789043128490448,
                            192.57247924804688
                        ],
                        "op": "BO_Subtract",
                        "rotation": 5.131892204284668,
                        "scale": [
                            0.8799135684967041,
                            0.8799135684967041,
                            0.8799135684967041
                        ],
                        "height": 447.2030029296875,
                        "position": [
                            -371.07489013671875,
                            -158.77593994140625,
                            192.57254028320312
                        ],
                        "weightHard": false,
                        "weightScale": [
                            1,
                            1,
                            1
                        ],
                        "mirrored": false,
                        "twinId": 13,
                        "flooded": false,
                        "pathable": true,
                        "mergeable": true,
                        "no_features": false,
                        "biomeColor": [
                            0,
                            0,
                            0,
                            1
                        ]
                    },
                    {
                        "weight": [
                            1,
                            1,
                            1,
                            1
                        ],
                        "spec": "/pa/terrain/moon/brushes/moon_crater_02.json",
                        "proj": "BP_Bend",
                        "transform": [
                            1.1708080768585205,
                            0.46217080950737,
                            -0.5776260495185852,
                            -186.67807006835938,
                            -0.737587571144104,
                            0.6463821530342102,
                            -0.9778547286987305,
                            -316.0245666503906,
                            0.056730955839157104,
                            -1.13429856300354,
                            -0.7925864458084106,
                            -256.1492919921875
                        ],
                        "op": "BO_Subtract",
                        "rotation": 5.6996541023254395,
                        "scale": [
                            1.3849350214004517,
                            1.3849350214004517,
                            1.3849350214004517
                        ],
                        "height": 447.58538818359375,
                        "position": [
                            -186.67807006835938,
                            -316.0245666503906,
                            256.1493225097656
                        ],
                        "weightHard": false,
                        "weightScale": [
                            1,
                            1,
                            1
                        ],
                        "mirrored": true,
                        "twinId": 5,
                        "flooded": false,
                        "pathable": true,
                        "mergeable": true,
                        "no_features": false,
                        "biomeColor": [
                            0,
                            0,
                            0,
                            1
                        ]
                    },
                    {
                        "weight": [
                            1,
                            1,
                            1,
                            1
                        ],
                        "spec": "/pa/terrain/moon/brushes/moon_crater_02.json",
                        "proj": "BP_Bend",
                        "transform": [
                            -0.2818946838378906,
                            -1.1113673448562622,
                            -0.028607409447431564,
                            -11.264153480529785,
                            0.5480576753616333,
                            -0.11324361711740494,
                            -1.0011138916015625,
                            -394.1881408691406,
                            -0.9672583341598511,
                            0.25972849130630493,
                            -0.5589032769203186,
                            -220.06790161132812
                        ],
                        "op": "BO_Subtract",
                        "rotation": 1.804560661315918,
                        "scale": [
                            1.1469178199768066,
                            1.1469178199768066,
                            1.1469178199768066
                        ],
                        "height": 451.5982971191406,
                        "position": [
                            -11.264152526855469,
                            -394.1881103515625,
                            220.06793212890625
                        ],
                        "weightHard": false,
                        "weightScale": [
                            1,
                            1,
                            1
                        ],
                        "mirrored": true,
                        "twinId": 7,
                        "flooded": false,
                        "pathable": true,
                        "mergeable": true,
                        "no_features": false,
                        "biomeColor": [
                            0,
                            0,
                            0,
                            1
                        ]
                    },
                    {
                        "weight": [
                            1,
                            1,
                            1,
                            1
                        ],
                        "spec": "/pa/terrain/moon/brushes/moon_crater_02.json",
                        "proj": "BP_Bend",
                        "transform": [
                            0.2801940441131592,
                            0.8411269187927246,
                            0.19792398810386658,
                            97.81419372558594,
                            -0.5701560974121094,
                            0.33631137013435364,
                            -0.6220882534980774,
                            -307.43646240234375,
                            0.6492998600006104,
                            -0.06765559315681458,
                            -0.6316720247268677,
                            -312.1728210449219
                        ],
                        "op": "BO_Subtract",
                        "rotation": 5.124245643615723,
                        "scale": [
                            0.9083926677703857,
                            0.9083926677703857,
                            0.9083926677703857
                        ],
                        "height": 448.9283447265625,
                        "position": [
                            97.81419372558594,
                            -307.4365234375,
                            312.1727600097656
                        ],
                        "weightHard": false,
                        "weightScale": [
                            1,
                            1,
                            1
                        ],
                        "mirrored": true,
                        "twinId": 8,
                        "flooded": false,
                        "pathable": true,
                        "mergeable": true,
                        "no_features": false,
                        "biomeColor": [
                            0,
                            0,
                            0,
                            1
                        ]
                    },
                    {
                        "weight": [
                            1,
                            1,
                            1,
                            1
                        ],
                        "spec": "/pa/terrain/moon/brushes/moon_crater_02.json",
                        "proj": "BP_Bend",
                        "transform": [
                            -0.08549559861421585,
                            -1.1506695747375488,
                            0.31161773204803467,
                            114.51787567138672,
                            0.8591238856315613,
                            0.15712082386016846,
                            0.8158889412879944,
                            299.83489990234375,
                            0.8264697194099426,
                            -0.2823617458343506,
                            -0.8158892393112183,
                            -299.8349914550781
                        ],
                        "op": "BO_Subtract",
                        "rotation": 1.5351732969284058,
                        "scale": [
                            1.1951801776885986,
                            1.1951801776885986,
                            1.1951801776885986
                        ],
                        "height": 439.2224426269531,
                        "position": [
                            114.51791381835938,
                            299.8349914550781,
                            299.8349914550781
                        ],
                        "weightHard": false,
                        "weightScale": [
                            1,
                            1,
                            1
                        ],
                        "mirrored": true,
                        "twinId": 12,
                        "flooded": false,
                        "pathable": true,
                        "mergeable": true,
                        "no_features": false,
                        "biomeColor": [
                            0,
                            0,
                            0,
                            1
                        ]
                    },
                    {
                        "weight": [
                            1,
                            1,
                            1,
                            1
                        ],
                        "spec": "/pa/terrain/moon/brushes/moon_crater_02.json",
                        "proj": "BP_Bend",
                        "transform": [
                            0.3513960838317871,
                            0.3430554270744324,
                            -0.7301244139671326,
                            -371.07489013671875,
                            -0.8066120743751526,
                            0.161328986287117,
                            -0.312406450510025,
                            -158.77593994140625,
                            -0.012066543102264404,
                            -0.7940616011619568,
                            -0.3789043128490448,
                            -192.5724639892578
                        ],
                        "op": "BO_Subtract",
                        "rotation": 5.131892204284668,
                        "scale": [
                            0.8799135684967041,
                            0.8799135684967041,
                            0.8799135684967041
                        ],
                        "height": 447.2030029296875,
                        "position": [
                            -371.07489013671875,
                            -158.77593994140625,
                            192.57254028320312
                        ],
                        "weightHard": false,
                        "weightScale": [
                            1,
                            1,
                            1
                        ],
                        "mirrored": true,
                        "twinId": 13,
                        "flooded": false,
                        "pathable": true,
                        "mergeable": true,
                        "no_features": false,
                        "biomeColor": [
                            0,
                            0,
                            0,
                            1
                        ]
                    },
                    {
                        "weight": [
                            1,
                            1,
                            1,
                            1
                        ],
                        "spec": "/pa/terrain/moon/brushes/moon_ruin_01.json",
                        "proj": "BP_Bend",
                        "transform": [
                            -0.6069487929344177,
                            1.6187012195587158,
                            0.33017677068710327,
                            83.39373016357422,
                            -1.6251317262649536,
                            -0.6482389569282532,
                            0.19060587882995605,
                            48.14189529418945,
                            0.2969134449958801,
                            -0.23914366960525513,
                            1.71821129322052,
                            433.9737548828125
                        ],
                        "op": "BO_Add",
                        "rotation": -1.939998745918274,
                        "scale": [
                            1.7599992752075195,
                            1.7599992752075195,
                            1.7599992752075195
                        ],
                        "height": 444.52825927734375,
                        "position": [
                            83.39372253417969,
                            48.14189147949219,
                            433.9737548828125
                        ],
                        "weightHard": false,
                        "weightScale": [
                            1,
                            1,
                            1
                        ],
                        "mirrored": false,
                        "twinId": 14,
                        "flooded": false,
                        "pathable": false,
                        "mergeable": false,
                        "no_features": false,
                        "biomeColor": [
                            0,
                            0,
                            0,
                            1
                        ]
                    },
                    {
                        "weight": [
                            1,
                            1,
                            1,
                            1
                        ],
                        "spec": "/pa/terrain/moon/brushes/moon_ruin_01.json",
                        "proj": "BP_Bend",
                        "transform": [
                            -0.6069487929344177,
                            1.6187012195587158,
                            0.33017677068710327,
                            83.39373016357422,
                            -1.6251317262649536,
                            -0.6482389569282532,
                            0.19060587882995605,
                            48.14189529418945,
                            -0.2969134449958801,
                            0.23914366960525513,
                            -1.71821129322052,
                            -433.9737243652344
                        ],
                        "op": "BO_Add",
                        "rotation": -1.939998745918274,
                        "scale": [
                            1.7599992752075195,
                            1.7599992752075195,
                            1.7599992752075195
                        ],
                        "height": 444.52825927734375,
                        "position": [
                            83.39372253417969,
                            48.14189147949219,
                            433.9737548828125
                        ],
                        "weightHard": false,
                        "weightScale": [
                            1,
                            1,
                            1
                        ],
                        "mirrored": true,
                        "twinId": 14,
                        "flooded": false,
                        "pathable": false,
                        "mergeable": false,
                        "no_features": false,
                        "biomeColor": [
                            0,
                            0,
                            0,
                            1
                        ]
                    },
                    {
                        "weight": [
                            1,
                            1,
                            1,
                            1
                        ],
                        "spec": "/pa/terrain/metal/brushes/metal_structure_05.json",
                        "proj": "BP_Bend",
                        "transform": [
                            -0.26084479689598083,
                            -0.10197322815656662,
                            1.6362024545669556,
                            445.267333984375,
                            -1.6392804384231567,
                            -0.001781761646270752,
                            -0.26144644618034363,
                            -71.14862823486328,
                            0.017816811800003052,
                            -1.6568630933761597,
                            -0.1004204973578453,
                            -27.327896118164062
                        ],
                        "op": "BO_Add",
                        "rotation": -1.7399983406066895,
                        "scale": [
                            1.6599993705749512,
                            1.6599993705749512,
                            1.6599993705749512
                        ],
                        "height": 451.7432861328125,
                        "position": [
                            445.26739501953125,
                            -71.14863586425781,
                            -27.327960968017578
                        ],
                        "weightHard": false,
                        "weightScale": [
                            1,
                            1,
                            1
                        ],
                        "mirrored": false,
                        "twinId": 16,
                        "flooded": false,
                        "pathable": false,
                        "mergeable": false,
                        "no_features": false,
                        "biomeColor": [
                            0,
                            0,
                            0,
                            1
                        ]
                    },
                    {
                        "weight": [
                            1,
                            1,
                            1,
                            1
                        ],
                        "spec": "/pa/terrain/metal/brushes/metal_structure_05.json",
                        "proj": "BP_Bend",
                        "transform": [
                            -0.26084479689598083,
                            -0.10197322815656662,
                            1.6362024545669556,
                            445.267333984375,
                            -1.6392804384231567,
                            -0.001781761646270752,
                            -0.26144644618034363,
                            -71.14862823486328,
                            -0.017816811800003052,
                            1.6568630933761597,
                            0.1004204973578453,
                            27.327896118164062
                        ],
                        "op": "BO_Add",
                        "rotation": -1.7399983406066895,
                        "scale": [
                            1.6599993705749512,
                            1.6599993705749512,
                            1.6599993705749512
                        ],
                        "height": 451.7432861328125,
                        "position": [
                            445.26739501953125,
                            -71.14863586425781,
                            -27.327960968017578
                        ],
                        "weightHard": false,
                        "weightScale": [
                            1,
                            1,
                            1
                        ],
                        "mirrored": true,
                        "twinId": 16,
                        "flooded": false,
                        "pathable": false,
                        "mergeable": false,
                        "no_features": false,
                        "biomeColor": [
                            0,
                            0,
                            0,
                            1
                        ]
                    },
                    {
                        "weight": [
                            1,
                            1,
                            1,
                            1
                        ],
                        "spec": "/pa/terrain/metal/brushes/metal_structure_12.json",
                        "proj": "BP_Bend",
                        "transform": [
                            3.3125898838043213,
                            -3.353703022003174,
                            1.2624520063400269,
                            113.69190979003906,
                            -0.8856869339942932,
                            0.8996375203132629,
                            4.713870525360107,
                            424.5142822265625,
                            -3.472271680831909,
                            -3.4289488792419434,
                            0.0020081696566194296,
                            0.18084855377674103
                        ],
                        "op": "BO_Add",
                        "rotation": 0.5300000905990601,
                        "scale": [
                            4.879996299743652,
                            4.879996299743652,
                            4.879996299743652
                        ],
                        "height": 439.4749755859375,
                        "position": [
                            113.69190979003906,
                            424.5142822265625,
                            0.1808319091796875
                        ],
                        "weightHard": false,
                        "weightScale": [
                            1,
                            1,
                            1
                        ],
                        "mirrored": false,
                        "twinId": 17,
                        "flooded": false,
                        "pathable": true,
                        "mergeable": false,
                        "no_features": true,
                        "biomeColor": [
                            0,
                            0,
                            0,
                            1
                        ]
                    },
                    {
                        "weight": [
                            1,
                            1,
                            1,
                            1
                        ],
                        "spec": "/pa/terrain/metal/brushes/metal_structure_12.json",
                        "proj": "BP_Bend",
                        "transform": [
                            3.3125898838043213,
                            -3.353703022003174,
                            1.2624520063400269,
                            113.69190979003906,
                            -0.8856869339942932,
                            0.8996375203132629,
                            4.713870525360107,
                            424.5142822265625,
                            3.472271680831909,
                            3.4289488792419434,
                            -0.0020081696566194296,
                            -0.18084855377674103
                        ],
                        "op": "BO_Add",
                        "rotation": 0.5300000905990601,
                        "scale": [
                            4.879996299743652,
                            4.879996299743652,
                            4.879996299743652
                        ],
                        "height": 439.4749755859375,
                        "position": [
                            113.69190979003906,
                            424.5142822265625,
                            0.1808319091796875
                        ],
                        "weightHard": false,
                        "weightScale": [
                            1,
                            1,
                            1
                        ],
                        "mirrored": true,
                        "twinId": 17,
                        "flooded": false,
                        "pathable": true,
                        "mergeable": false,
                        "no_features": true,
                        "biomeColor": [
                            0,
                            0,
                            0,
                            1
                        ]
                    },
                    {
                        "weight": [
                            1,
                            1,
                            1,
                            1
                        ],
                        "spec": "/pa/terrain/metal/brushes/metal_structure_06.json",
                        "proj": "BP_Bend",
                        "transform": [
                            0.49655866622924805,
                            -0.03265048563480377,
                            -0.8673889636993408,
                            -386.3368225097656,
                            0.8680022954940796,
                            0.02007085084915161,
                            0.49615439772605896,
                            220.98817443847656,
                            0.0012095868587493896,
                            -0.9992653727531433,
                            0.0383070707321167,
                            17.062047958374023
                        ],
                        "op": "BO_Add",
                        "rotation": 1.0500022172927856,
                        "scale": [
                            1,
                            1,
                            1
                        ],
                        "height": 445.40203857421875,
                        "position": [
                            -386.3367919921875,
                            220.9881591796875,
                            17.062108993530273
                        ],
                        "weightHard": false,
                        "weightScale": [
                            1,
                            1,
                            1
                        ],
                        "mirrored": false,
                        "twinId": 20,
                        "flooded": false,
                        "pathable": false,
                        "mergeable": false,
                        "no_features": false,
                        "biomeColor": [
                            0,
                            0,
                            0,
                            1
                        ]
                    },
                    {
                        "weight": [
                            1,
                            1,
                            1,
                            1
                        ],
                        "spec": "/pa/terrain/metal/brushes/metal_structure_06.json",
                        "proj": "BP_Bend",
                        "transform": [
                            0.49655866622924805,
                            -0.03265048563480377,
                            -0.8673889636993408,
                            -386.3368225097656,
                            0.8680022954940796,
                            0.02007085084915161,
                            0.49615439772605896,
                            220.98817443847656,
                            -0.0012095868587493896,
                            0.9992653727531433,
                            -0.0383070707321167,
                            -17.06204605102539
                        ],
                        "op": "BO_Add",
                        "rotation": 1.0500022172927856,
                        "scale": [
                            1,
                            1,
                            1
                        ],
                        "height": 445.40203857421875,
                        "position": [
                            -386.3367919921875,
                            220.9881591796875,
                            17.062108993530273
                        ],
                        "weightHard": false,
                        "weightScale": [
                            1,
                            1,
                            1
                        ],
                        "mirrored": true,
                        "twinId": 20,
                        "flooded": false,
                        "pathable": false,
                        "mergeable": false,
                        "no_features": false,
                        "biomeColor": [
                            0,
                            0,
                            0,
                            1
                        ]
                    },
                    {
                        "weight": [
                            1,
                            1,
                            1,
                            1
                        ],
                        "spec": "/pa/terrain/moon/brushes/moon_crater_02.json",
                        "proj": "BP_Bend",
                        "transform": [
                            1.2741498947143555,
                            0.20091676712036133,
                            0.24856019020080566,
                            85.10950469970703,
                            0.20091676712036133,
                            0.2909867763519287,
                            -1.2651352882385254,
                            -433.19500732421875,
                            -0.24856019020080566,
                            1.2651352882385254,
                            0.2515127956867218,
                            86.1205062866211
                        ],
                        "op": "BO_Subtract",
                        "rotation": 0,
                        "scale": [
                            1.3136239051818848,
                            1.3136239051818848,
                            1.3136239051818848
                        ],
                        "height": 449.7980041503906,
                        "position": [
                            85.1094970703125,
                            -433.1949462890625,
                            86.12051391601562
                        ],
                        "weightHard": false,
                        "weightScale": [
                            1,
                            1,
                            1
                        ],
                        "mirrored": false,
                        "twinId": 21,
                        "flooded": false,
                        "pathable": true,
                        "mergeable": true,
                        "no_features": false
                    },
                    {
                        "weight": [
                            1,
                            1,
                            1,
                            1
                        ],
                        "spec": "/pa/terrain/moon/brushes/moon_crater_02.json",
                        "proj": "BP_Bend",
                        "transform": [
                            1.2741498947143555,
                            0.20091676712036133,
                            0.24856019020080566,
                            85.10950469970703,
                            0.20091676712036133,
                            0.2909867763519287,
                            -1.2651352882385254,
                            -433.19500732421875,
                            0.24856019020080566,
                            -1.2651352882385254,
                            -0.2515127956867218,
                            -86.1205062866211
                        ],
                        "op": "BO_Subtract",
                        "rotation": 0,
                        "scale": [
                            1.3136239051818848,
                            1.3136239051818848,
                            1.3136239051818848
                        ],
                        "height": 449.7980041503906,
                        "position": [
                            85.1094970703125,
                            -433.1949462890625,
                            86.12051391601562
                        ],
                        "weightHard": false,
                        "weightScale": [
                            1,
                            1,
                            1
                        ],
                        "mirrored": true,
                        "twinId": 21,
                        "flooded": false,
                        "pathable": true,
                        "mergeable": true,
                        "no_features": false,
                        "biomeColor": [
                            0,
                            0,
                            0,
                            1
                        ]
                    },
                    {
                        "weight": [
                            1,
                            1,
                            1,
                            1
                        ],
                        "spec": "/pa/terrain/moon/brushes/moon_crater_02.json",
                        "proj": "BP_Bend",
                        "transform": [
                            1.2364810705184937,
                            -0.2715862989425659,
                            -0.350661039352417,
                            -119.5735092163086,
                            -0.2715862989425659,
                            0.357486754655838,
                            -1.2345249652862549,
                            -420.96630859375,
                            0.350661039352417,
                            1.2345249652862549,
                            0.2803439497947693,
                            95.59576416015625
                        ],
                        "op": "BO_Subtract",
                        "rotation": 0,
                        "scale": [
                            1.3136239051818848,
                            1.3136239051818848,
                            1.3136239051818848
                        ],
                        "height": 447.9386291503906,
                        "position": [
                            -119.57351684570312,
                            -420.96630859375,
                            95.59573364257812
                        ],
                        "weightHard": false,
                        "weightScale": [
                            1,
                            1,
                            1
                        ],
                        "mirrored": false,
                        "twinId": 23,
                        "flooded": false,
                        "pathable": true,
                        "mergeable": true,
                        "no_features": false,
                        "biomeColor": [
                            0,
                            0,
                            0,
                            1
                        ]
                    },
                    {
                        "weight": [
                            1,
                            1,
                            1,
                            1
                        ],
                        "spec": "/pa/terrain/moon/brushes/moon_crater_02.json",
                        "proj": "BP_Bend",
                        "transform": [
                            1.2364810705184937,
                            -0.2715862989425659,
                            -0.350661039352417,
                            -119.5735092163086,
                            -0.2715862989425659,
                            0.357486754655838,
                            -1.2345249652862549,
                            -420.96630859375,
                            -0.350661039352417,
                            -1.2345249652862549,
                            -0.2803439497947693,
                            -95.59576416015625
                        ],
                        "op": "BO_Subtract",
                        "rotation": 0,
                        "scale": [
                            1.3136239051818848,
                            1.3136239051818848,
                            1.3136239051818848
                        ],
                        "height": 447.9386291503906,
                        "position": [
                            -119.57351684570312,
                            -420.96630859375,
                            95.59573364257812
                        ],
                        "weightHard": false,
                        "weightScale": [
                            1,
                            1,
                            1
                        ],
                        "mirrored": true,
                        "twinId": 23,
                        "flooded": false,
                        "pathable": true,
                        "mergeable": true,
                        "no_features": false
                    },
                    {
                        "weight": [
                            1,
                            1,
                            1,
                            1
                        ],
                        "spec": "/pa/terrain/moon/brushes/moon_crater_02.json",
                        "proj": "BP_Bend",
                        "transform": [
                            0.6999475955963135,
                            0.7389398217201233,
                            1.065649151802063,
                            323.7442626953125,
                            0.7389398217201233,
                            0.7678605914115906,
                            -1.0178040266036987,
                            -309.2088928222656,
                            -1.065649151802063,
                            1.0178040266036987,
                            -0.005815543234348297,
                            -1.766762375831604
                        ],
                        "op": "BO_Subtract",
                        "rotation": 0,
                        "scale": [
                            1.4736237525939941,
                            1.4736237525939941,
                            1.4736237525939941
                        ],
                        "height": 447.68695068359375,
                        "position": [
                            323.7442626953125,
                            -309.2088623046875,
                            -1.766845703125
                        ],
                        "weightHard": false,
                        "weightScale": [
                            1,
                            1,
                            1
                        ],
                        "mirrored": false,
                        "twinId": 24,
                        "flooded": false,
                        "pathable": true,
                        "mergeable": true,
                        "no_features": false,
                        "biomeColor": [
                            0,
                            0,
                            0,
                            1
                        ]
                    },
                    {
                        "weight": [
                            1,
                            1,
                            1,
                            1
                        ],
                        "spec": "/pa/terrain/moon/brushes/moon_crater_02.json",
                        "proj": "BP_Bend",
                        "transform": [
                            0.6999475955963135,
                            0.7389398217201233,
                            1.065649151802063,
                            323.7442321777344,
                            0.7389398217201233,
                            0.7678605914115906,
                            -1.0178040266036987,
                            -309.2088928222656,
                            1.065649151802063,
                            -1.0178040266036987,
                            0.005815543234348297,
                            1.766762375831604
                        ],
                        "op": "BO_Subtract",
                        "rotation": 0,
                        "scale": [
                            1.4736237525939941,
                            1.4736237525939941,
                            1.4736237525939941
                        ],
                        "height": 447.68695068359375,
                        "position": [
                            323.7442626953125,
                            -309.2088623046875,
                            -1.766845703125
                        ],
                        "weightHard": false,
                        "weightScale": [
                            1,
                            1,
                            1
                        ],
                        "mirrored": true,
                        "twinId": 24,
                        "flooded": false,
                        "pathable": true,
                        "mergeable": true,
                        "no_features": false,
                        "biomeColor": [
                            0,
                            0,
                            0,
                            1
                        ]
                    },
                    {
                        "weight": [
                            1,
                            1,
                            1,
                            1
                        ],
                        "spec": "/pa/terrain/moon/brushes/moon_crater_02.json",
                        "proj": "BP_Bend",
                        "transform": [
                            1.133436679840088,
                            0.32907795906066895,
                            0.5767468810081482,
                            199.01016235351562,
                            0.32907795906066895,
                            0.7126253247261047,
                            -1.053318977355957,
                            -363.4543762207031,
                            -0.5767468810081482,
                            1.053318977355957,
                            0.5324380993843079,
                            183.7211456298828
                        ],
                        "op": "BO_Subtract",
                        "rotation": 0,
                        "scale": [
                            1.3136239051818848,
                            1.3136239051818848,
                            1.3136239051818848
                        ],
                        "height": 453.2742614746094,
                        "position": [
                            199.0101318359375,
                            -363.454345703125,
                            183.72116088867188
                        ],
                        "weightHard": false,
                        "weightScale": [
                            1,
                            1,
                            1
                        ],
                        "mirrored": false,
                        "twinId": 26,
                        "flooded": false,
                        "pathable": true,
                        "mergeable": true,
                        "no_features": false
                    },
                    {
                        "weight": [
                            1,
                            1,
                            1,
                            1
                        ],
                        "spec": "/pa/terrain/moon/brushes/moon_crater_02.json",
                        "proj": "BP_Bend",
                        "transform": [
                            1.133436679840088,
                            0.32907795906066895,
                            0.5767468810081482,
                            199.01016235351562,
                            0.32907795906066895,
                            0.7126253247261047,
                            -1.053318977355957,
                            -363.4543762207031,
                            0.5767468810081482,
                            -1.053318977355957,
                            -0.5324380993843079,
                            -183.72116088867188
                        ],
                        "op": "BO_Subtract",
                        "rotation": 0,
                        "scale": [
                            1.3136239051818848,
                            1.3136239051818848,
                            1.3136239051818848
                        ],
                        "height": 453.2742614746094,
                        "position": [
                            199.0101318359375,
                            -363.454345703125,
                            183.72116088867188
                        ],
                        "weightHard": false,
                        "weightScale": [
                            1,
                            1,
                            1
                        ],
                        "mirrored": true,
                        "twinId": 26,
                        "flooded": false,
                        "pathable": true,
                        "mergeable": true,
                        "no_features": false,
                        "biomeColor": [
                            0,
                            0,
                            0,
                            1
                        ]
                    },
                    {
                        "weight": [
                            1,
                            1,
                            1,
                            1
                        ],
                        "spec": "/pa/terrain/moon/brushes/moon_crater_02.json",
                        "proj": "BP_Bend",
                        "transform": [
                            0.5794962644577026,
                            -0.49740225076675415,
                            -1.0688230991363525,
                            -361.3430480957031,
                            -0.49740225076675415,
                            0.9766130447387695,
                            -0.7241724729537964,
                            -244.8250732421875,
                            1.0688230991363525,
                            0.7241724729537964,
                            0.2424854189157486,
                            81.97840881347656
                        ],
                        "op": "BO_Subtract",
                        "rotation": 0,
                        "scale": [
                            1.3136239051818848,
                            1.3136239051818848,
                            1.3136239051818848
                        ],
                        "height": 444.1042175292969,
                        "position": [
                            -361.343017578125,
                            -244.82504272460938,
                            81.97842407226562
                        ],
                        "weightHard": false,
                        "weightScale": [
                            1,
                            1,
                            1
                        ],
                        "mirrored": false,
                        "twinId": 27,
                        "flooded": false,
                        "pathable": true,
                        "mergeable": true,
                        "no_features": false,
                        "biomeColor": [
                            0,
                            0,
                            0,
                            1
                        ]
                    },
                    {
                        "weight": [
                            1,
                            1,
                            1,
                            1
                        ],
                        "spec": "/pa/terrain/moon/brushes/moon_crater_02.json",
                        "proj": "BP_Bend",
                        "transform": [
                            0.5794962644577026,
                            -0.49740225076675415,
                            -1.0688230991363525,
                            -361.3430480957031,
                            -0.49740225076675415,
                            0.9766130447387695,
                            -0.7241724729537964,
                            -244.8250732421875,
                            -1.0688230991363525,
                            -0.7241724729537964,
                            -0.2424854189157486,
                            -81.9784164428711
                        ],
                        "op": "BO_Subtract",
                        "rotation": 0,
                        "scale": [
                            1.3136239051818848,
                            1.3136239051818848,
                            1.3136239051818848
                        ],
                        "height": 444.1042175292969,
                        "position": [
                            -361.343017578125,
                            -244.82504272460938,
                            81.97842407226562
                        ],
                        "weightHard": false,
                        "weightScale": [
                            1,
                            1,
                            1
                        ],
                        "mirrored": true,
                        "twinId": 27,
                        "flooded": false,
                        "pathable": true,
                        "mergeable": true,
                        "no_features": false,
                        "biomeColor": [
                            0,
                            0,
                            0,
                            1
                        ]
                    }
                ],
                "metal_spots": [
                    [
                        311.3236083984375,
                        -46.32227325439453,
                        315.2669677734375
                    ],
                    [
                        311.3236083984375,
                        -46.32227325439453,
                        -315.2669677734375
                    ],
                    [
                        326.8907470703125,
                        2.9889068603515625,
                        301.6705322265625
                    ],
                    [
                        326.8907470703125,
                        2.9889068603515625,
                        -301.6705322265625
                    ],
                    [
                        341.3167724609375,
                        -66.0361557006836,
                        277.6755065917969
                    ],
                    [
                        341.3167724609375,
                        -66.0361557006836,
                        -277.6755065917969
                    ],
                    [
                        355.05596923828125,
                        -18.706329345703125,
                        266.4299011230469
                    ],
                    [
                        355.05596923828125,
                        -18.706329345703125,
                        -266.4299011230469
                    ],
                    [
                        -226.6302490234375,
                        155.77923583984375,
                        347.53533935546875
                    ],
                    [
                        -226.6302490234375,
                        155.77923583984375,
                        -347.53533935546875
                    ],
                    [
                        -251.397705078125,
                        104.46780395507812,
                        352.2091979980469
                    ],
                    [
                        -251.397705078125,
                        104.46780395507812,
                        -352.2091979980469
                    ],
                    [
                        -272.76690673828125,
                        175.11880493164062,
                        302.556884765625
                    ],
                    [
                        -272.76690673828125,
                        175.11880493164062,
                        -302.556884765625
                    ],
                    [
                        -294.14434814453125,
                        120.3043212890625,
                        311.143310546875
                    ],
                    [
                        -294.14434814453125,
                        120.3043212890625,
                        -311.143310546875
                    ],
                    [
                        110.44677734375,
                        292.7503662109375,
                        291.6390380859375
                    ],
                    [
                        110.44677734375,
                        292.7503662109375,
                        -291.6390380859375
                    ],
                    [
                        -181.70046997070312,
                        -297.9788818359375,
                        259.1471862792969
                    ],
                    [
                        -181.70046997070312,
                        -297.9788818359375,
                        -259.1471862792969
                    ],
                    [
                        -123.70184326171875,
                        -407.00439453125,
                        91.68919372558594
                    ],
                    [
                        -123.70184326171875,
                        -407.00439453125,
                        -91.68919372558594
                    ],
                    [
                        -20.755691528320312,
                        -383.837646484375,
                        216.5420684814453
                    ],
                    [
                        -20.755691528320312,
                        -383.837646484375,
                        -216.5420684814453
                    ],
                    [
                        77.73249816894531,
                        -422.204833984375,
                        83.33999633789062
                    ],
                    [
                        77.73249816894531,
                        -422.204833984375,
                        -83.33999633789062
                    ],
                    [
                        189.13441467285156,
                        -349.0098876953125,
                        193.102783203125
                    ],
                    [
                        189.13441467285156,
                        -349.0098876953125,
                        -193.102783203125
                    ],
                    [
                        95.16513061523438,
                        -298.7789306640625,
                        308.8853759765625
                    ],
                    [
                        95.16513061523438,
                        -298.7789306640625,
                        -308.8853759765625
                    ],
                    [
                        -363.6368408203125,
                        -149.11041259765625,
                        195.16165161132812
                    ],
                    [
                        -363.6368408203125,
                        -149.11041259765625,
                        -195.16165161132812
                    ],
                    [
                        -355.19189453125,
                        -232.669677734375,
                        78.93328094482422
                    ],
                    [
                        -355.19189453125,
                        -232.669677734375,
                        -78.93328094482422
                    ],
                    [
                        114.6048583984375,
                        442.8388671875,
                        141.7820587158203
                    ],
                    [
                        114.6048583984375,
                        442.8388671875,
                        -141.7820587158203
                    ],
                    [
                        80.14997863769531,
                        458.4190673828125,
                        107.84518432617188
                    ],
                    [
                        80.14997863769531,
                        458.4190673828125,
                        -107.84518432617188
                    ],
                    [
                        165.8452606201172,
                        432.45916748046875,
                        105.62712860107422
                    ],
                    [
                        165.8452606201172,
                        432.45916748046875,
                        -105.62712860107422
                    ],
                    [
                        193.41510009765625,
                        -140.20346069335938,
                        379.916259765625
                    ],
                    [
                        193.41510009765625,
                        -140.20346069335938,
                        -379.916259765625
                    ],
                    [
                        265.91595458984375,
                        97.94578552246094,
                        342.2640380859375
                    ],
                    [
                        265.91595458984375,
                        97.94578552246094,
                        -342.2640380859375
                    ],
                    [
                        -125.0709228515625,
                        -22.43437957763672,
                        424.7415771484375
                    ],
                    [
                        -125.0709228515625,
                        -22.43437957763672,
                        -424.7415771484375
                    ],
                    [
                        -46.8055419921875,
                        200.91256713867188,
                        389.9229736328125
                    ],
                    [
                        -46.8055419921875,
                        200.91256713867188,
                        -389.9229736328125
                    ],
                    [
                        388.0086669921875,
                        -186.53904724121094,
                        131.87374877929688
                    ],
                    [
                        388.0086669921875,
                        -186.53904724121094,
                        -131.87374877929688
                    ],
                    [
                        426.7681884765625,
                        45.33148193359375,
                        123.53784942626953
                    ],
                    [
                        426.7681884765625,
                        45.33148193359375,
                        -123.53784942626953
                    ],
                    [
                        -289.191162109375,
                        317.8825988769531,
                        113.67052459716797
                    ],
                    [
                        -289.191162109375,
                        317.8825988769531,
                        -113.67052459716797
                    ],
                    [
                        -423.5836181640625,
                        89.14862060546875,
                        105.42552185058594
                    ],
                    [
                        -423.5836181640625,
                        89.14862060546875,
                        -105.42552185058594
                    ]
                ],
                "landing_zones": {
                    "list": [
                        [
                            334.9287109375,
                            -31.9359130859375,
                            290.69659423828125
                        ],
                        [
                            334.9287109375,
                            -31.9359130859375,
                            -290.69659423828125
                        ],
                        [
                            -259.39788818359375,
                            133.542236328125,
                            335.46142578125
                        ],
                        [
                            -259.39788818359375,
                            133.542236328125,
                            -335.46142578125
                        ]
                    ],
                    "rules": [
                        {
                            "min": 0,
                            "max": 10
                        },
                        {
                            "min": 0,
                            "max": 10
                        },
                        {
                            "min": 0,
                            "max": 10
                        },
                        {
                            "min": 0,
                            "max": 10
                        }
                    ]
                }
            },
            "planetCSG": [
                {
                    "weight": [
                        1,
                        1,
                        1,
                        1
                    ],
                    "spec": "/pa/terrain/moon/brushes/moon_crater_02.json",
                    "proj": "BP_Bend",
                    "transform": [
                        1.1708080768585205,
                        0.46217080950737,
                        -0.5776260495185852,
                        -186.67807006835938,
                        -0.737587571144104,
                        0.6463821530342102,
                        -0.9778547286987305,
                        -316.0245666503906,
                        -0.056730955839157104,
                        1.13429856300354,
                        0.7925864458084106,
                        256.1492919921875
                    ],
                    "op": "BO_Subtract",
                    "rotation": 5.6996541023254395,
                    "scale": [
                        1.3849350214004517,
                        1.3849350214004517,
                        1.3849350214004517
                    ],
                    "height": 447.58538818359375,
                    "position": [
                        -186.67807006835938,
                        -316.0245666503906,
                        256.1493225097656
                    ],
                    "weightHard": false,
                    "weightScale": [
                        1,
                        1,
                        1
                    ],
                    "mirrored": false,
                    "twinId": 5,
                    "flooded": false,
                    "pathable": true,
                    "mergeable": true,
                    "no_features": false,
                    "biomeColor": [
                        0,
                        0,
                        0,
                        1
                    ]
                },
                {
                    "weight": [
                        1,
                        1,
                        1,
                        1
                    ],
                    "spec": "/pa/terrain/moon/brushes/moon_crater_02.json",
                    "proj": "BP_Bend",
                    "transform": [
                        -0.10422803461551666,
                        -0.02697726897895336,
                        -0.8360476493835449,
                        -446.98553466796875,
                        0.8106994032859802,
                        -0.2108253687620163,
                        -0.09426510334014893,
                        -50.39801025390625,
                        -0.20608195662498474,
                        -0.8157155513763428,
                        0.05201294273138046,
                        27.808263778686523
                    ],
                    "op": "BO_Subtract",
                    "rotation": 1.9305343627929688,
                    "scale": [
                        0.842951238155365,
                        0.842951238155365,
                        0.842951238155365
                    ],
                    "height": 450.6764831542969,
                    "position": [
                        -446.9854736328125,
                        -50.398006439208984,
                        27.808277130126953
                    ],
                    "weightHard": false,
                    "weightScale": [
                        1,
                        1,
                        1
                    ],
                    "mirrored": false,
                    "twinId": 0,
                    "flooded": false,
                    "pathable": true,
                    "mergeable": true,
                    "no_features": false,
                    "biomeColor": [
                        0,
                        0,
                        0,
                        1
                    ]
                },
                {
                    "weight": [
                        1,
                        1,
                        1,
                        1
                    ],
                    "spec": "/pa/terrain/moon/brushes/moon_crater_02.json",
                    "proj": "BP_Bend",
                    "transform": [
                        -0.2818946838378906,
                        -1.1113673448562622,
                        -0.028607409447431564,
                        -11.264153480529785,
                        0.5480576753616333,
                        -0.11324361711740494,
                        -1.0011138916015625,
                        -394.1881408691406,
                        0.9672583341598511,
                        -0.25972849130630493,
                        0.5589032769203186,
                        220.06790161132812
                    ],
                    "op": "BO_Subtract",
                    "rotation": 1.804560661315918,
                    "scale": [
                        1.1469178199768066,
                        1.1469178199768066,
                        1.1469178199768066
                    ],
                    "height": 451.5982971191406,
                    "position": [
                        -11.264152526855469,
                        -394.1881103515625,
                        220.06793212890625
                    ],
                    "weightHard": false,
                    "weightScale": [
                        1,
                        1,
                        1
                    ],
                    "mirrored": false,
                    "twinId": 7,
                    "flooded": false,
                    "pathable": true,
                    "mergeable": true,
                    "no_features": false,
                    "biomeColor": [
                        0,
                        0,
                        0,
                        1
                    ]
                },
                {
                    "weight": [
                        1,
                        1,
                        1,
                        1
                    ],
